5
5	2	5	2	FC_LAYER_SG
-4.012510776519775	-0.03269282355904579	-1.8232591152191162	-0.3882841467857361	-1.110373616218567	-1.6065846681594849	-2.35830020904541	-0.06554294377565384	0.2626999616622925	2.8440098762512207
-0.96228385	0.52709216	2.1280491	0.34638765	0.28566673
10	5	10	5	FC_LAYER_SG
-1.2027919292449951	-1.214788556098938	-1.1662912368774414	-0.8048819899559021	1.9037188291549683	1.7691513299942017	0.7263603806495667	0.8628357648849487	0.8853498101234436	-1.8151328563690186	-2.624526023864746	-1.158139944076538	-1.1691867113113403	-0.18898352980613708	1.6719154119491577	1.5883525609970093	1.6391019821166992	0.9714546799659729	1.6317522525787354	0.7283162474632263	0.6761612892150879	1.0041316747665405	1.8032023906707764	1.3764729499816895	-1.354430079460144	-2.934579610824585	-0.8594443202018738	-0.08433058857917786	-1.6573936939239502	1.301661729812622	0.307362824678421	1.1069716215133667	1.8820720911026	1.376112461090088	-0.9646686911582947	3.2912120819091797	4.27055549621582	6.330926418304443	4.1092729568481445	-3.0949361324310303	1.3420188426971436	1.7145192623138428	2.909284830093384	1.744708776473999	-1.3136571645736694	0.992516040802002	1.2505378723144531	1.4139069318771362	1.2021557092666626	-1.1973997354507446
0.79666775	-0.6082894	1.1221633	-0.36734352	-0.63154453	1.4597445	-0.71950614	-0.5088805	-0.2569114	-0.81915385
10	10	10	10	FC_LAYER_SG
-1.123455286026001	0.7285745143890381	-1.1542798280715942	-0.03835833817720413	0.5395085215568542	-1.3257609605789185	0.45422282814979553	-0.11589904874563217	0.24835073947906494	0.5704577565193176	-0.6655538082122803	1.3652063608169556	-1.686547040939331	-0.16582320630550385	0.37671977281570435	-1.747643232345581	0.2533225417137146	-0.5405601859092712	0.6827654838562012	0.6930210590362549	-2.960638999938965	3.4401533603668213	-2.891885995864868	0.19041787087917328	3.7171247005462646	-2.755784034729004	3.130591630935669	6.870092868804932	4.403614521026611	3.5660383701324463	-2.1340067386627197	2.160845994949341	-2.051926612854004	-1.059430480003357	0.6430418491363525	-2.3134260177612305	0.9157483577728271	-0.19819499552249908	-0.09443452954292297	1.2106363773345947	1.5916029214859009	-1.4329726696014404	1.258005142211914	0.5388192534446716	-0.45144182443618774	1.2015258073806763	-0.9017401933670044	0.4991852939128876	-0.5592393279075623	-1.0155513286590576	-2.7324728965759277	2.2015538215637207	-2.8595130443573	-0.7111589312553406	1.9128859043121338	-4.1508989334106445	1.2697385549545288	-0.9481934905052185	0.7893537878990173	1.1055563688278198	0.81230628490448	-0.7659029364585876	0.5611791014671326	0.07725980877876282	-1.3179535865783691	0.5311365127563477	-0.9458763599395752	-0.3699714243412018	-0.9076867699623108	-0.24781584739685059	-1.0558024644851685	0.9289427995681763	-1.663286805152893	-0.4123385548591614	0.7282454967498779	-1.7217220067977905	0.4734584391117096	-0.02711549401283264	0.7231292724609375	0.2218572348356247	-1.5730481147766113	1.537794828414917	-1.2501672506332397	0.6935133337974548	0.8443612456321716	-1.3773715496063232	2.0173892974853516	2.4676671028137207	2.163266181945801	1.5466879606246948	-0.4184328317642212	0.4949374496936798	-0.21116004884243011	0.06355925649404526	1.2031934261322021	-1.149664044380188	0.43301188945770264	0.5593075156211853	0.7616167068481445	0.894070565700531
-0.57848704	-0.6984302	-1.130999	-0.9607124	0.74602497	-1.1729512	0.5900077	-0.55875266	-0.46246004	-0.40028852
5	10	5	10	FC_LAYER_SG
1.289599895477295	1.138727068901062	2.4776620864868164	1.0819560289382935	-1.1396937370300293	0.9498569369316101	-1.4493274688720703	0.7906837463378906	1.3226262331008911	0.04035099968314171	-0.35861513018608093	-0.6006399989128113	-0.5320638418197632	-2.6318116188049316	1.7047604322433472	-4.529747486114502	1.1111961603164673	-1.1085699796676636	-0.08801166713237762	0.3402650058269501	-1.0181061029434204	-0.4295305907726288	-1.0419540405273438	-1.2642356157302856	0.9148696064949036	-1.483847737312317	2.0014374256134033	-0.8201566934585571	-1.305418610572815	-0.4774213433265686	0.865357518196106	0.7422412037849426	1.2317917346954346	1.0385321378707886	-1.31199312210083	1.202983021736145	-1.5523713827133179	1.4945346117019653	0.769294261932373	0.8489670157432556	1.0183987617492676	0.3885909616947174	1.5915961265563965	1.307502031326294	-1.2270827293395996	1.3232759237289429	-1.6689459085464478	0.4719465374946594	1.9116073846817017	0.4717165529727936
-0.7593869	1.2159591	0.5432106	-0.503692	-0.59264004
1	5	1	5	FC_LAYER_SG
-1.755590796470642	2.952711582183838	2.3538753986358643	-2.274932861328125	-1.5549668073654175
0.3796123
