5
5	2	5	2	FC_LAYER_SG
-0.6212255358695984	-1.8268085718154907	0.8012344241142273	0.025907551869750023	-2.7561028003692627	-0.4502042531967163	-0.7148038148880005	-2.1979827880859375	-2.3236520290374756	-0.7117173075675964
1.269299	0.766695	0.6223875	1.4076114	1.2259218
10	5	10	5	FC_LAYER_SG
0.517463743686676	-1.8717091083526611	2.0721030235290527	0.8856074213981628	1.2705568075180054	-0.8442986607551575	0.15500757098197937	-1.1870321035385132	-0.7126566767692566	-1.4419132471084595	0.06156089901924133	-1.5687296390533447	1.5918926000595093	0.38708585500717163	1.5670232772827148	-1.3451038599014282	0.20496302843093872	-1.0346065759658813	-1.372818112373352	-1.3664450645446777	1.1296992301940918	-0.4166550934314728	1.5518323183059692	0.8081575632095337	1.3977513313293457	2.0057451725006104	-0.425957590341568	1.6593821048736572	1.8550726175308228	1.7299869060516357	-0.18260054290294647	0.4991936981678009	-1.2594681978225708	-0.14524579048156738	-0.44471675157546997	0.03390926867723465	-0.2820869982242584	0.9093894362449646	0.9564080834388733	0.870000422000885	-0.3929683268070221	0.8713173270225525	-0.5556157231330872	-1.2888264656066895	-1.0053439140319824	-1.6334185600280762	0.49060899019241333	-1.760324239730835	-1.6852184534072876	-1.501762866973877
-1.8689824	0.7472742	-1.2483132	0.7124791	-0.9305523	-0.5641186	0.66260964	-0.6931733	0.5352492	0.62605363
10	10	10	10	FC_LAYER_SG
-0.5783628225326538	0.22092626988887787	-0.5311020016670227	0.9329916834831238	-0.5009117126464844	0.1284971535205841	0.9837095141410828	-0.5422254204750061	1.1452919244766235	0.7523617148399353	0.8969589471817017	-0.290068119764328	0.5197033286094666	-0.9660889506340027	0.8489606976509094	0.652633011341095	-0.1478416621685028	-0.20819202065467834	-0.8007240891456604	-1.1827017068862915	0.4070957899093628	-0.8675700426101685	0.4479708969593048	-1.2745002508163452	0.45032426714897156	0.7302004098892212	-1.0189669132232666	0.5836711525917053	-0.36418113112449646	-0.42754465341567993	1.0314409732818604	-1.2646275758743286	0.8437724709510803	-0.851534366607666	-0.042542848736047745	0.3199484646320343	-0.13322223722934723	0.3305179476737976	-1.0581653118133545	-0.5948823690414429	-0.989125669002533	0.7892769575119019	-0.7048527598381042	0.9265043139457703	-0.7785390615463257	0.17361731827259064	1.0014673471450806	-0.24365234375	1.131801962852478	1.18697988986969	0.8435611724853516	-0.3720206022262573	0.6144251823425293	-0.9678525328636169	0.4705986976623535	0.39987826347351074	-0.9849697947502136	0.2348044514656067	-0.3554779589176178	-1.3380482196807861	0.3314186632633209	-1.047913908958435	0.6671341061592102	-1.077040672302246	0.9889891147613525	1.4776103496551514	-0.1189771518111229	0.48215746879577637	-0.7758294343948364	-1.3178691864013672	0.8039588332176208	-0.5905120372772217	0.7923735976219177	-1.1439826488494873	-0.11497084051370621	-0.2408597767353058	-0.8135402798652649	0.2921527624130249	-0.2510344982147217	-1.2828713655471802	-0.8773820996284485	0.5339754223823547	-0.32081902027130127	0.9620404243469238	-0.2540571689605713	-0.6710145473480225	0.9918850064277649	-0.482753723859787	1.0313658714294434	0.7247723340988159	-0.5225462913513184	0.719241201877594	-0.9521098732948303	0.7138234972953796	-0.8685206770896912	-0.43394821882247925	0.9122626185417175	-0.029456526041030884	1.0573047399520874	0.9449164867401123
0.06515052	-0.06968086	-0.30257976	-0.24029332	0.2751347	-0.29705024	0.4014726	-0.36919856	0.27429622	0.25841978
5	10	5	10	FC_LAYER_SG
0.16959907114505768	-0.7489764094352722	-0.04279010742902756	-0.6806126236915588	0.7204107642173767	-0.3295692503452301	-1.6066027879714966	0.24222390353679657	0.5526215434074402	1.0135022401809692	-0.5531534552574158	-0.09937996417284012	0.6190022826194763	0.767162024974823	-0.3754579722881317	1.0114238262176514	1.4328376054763794	0.6011587977409363	-0.2711753249168396	-1.1970510482788086	-0.7802290320396423	0.635334312915802	0.7542504668235779	1.027811050415039	-0.4820246398448944	0.8221076130867004	1.5861022472381592	0.5540035963058472	-0.7792704701423645	-0.38406902551651	-0.05568709596991539	-0.46133172512054443	-0.7554141283035278	-0.8187660574913025	0.8461982011795044	-0.8052623867988586	-0.758030354976654	-0.29606500267982483	0.970488965511322	0.4641667306423187	0.07663250714540482	-0.5059146285057068	-0.7379361987113953	-1.126160740852356	0.6677475571632385	-0.502196192741394	-0.5331943035125732	0.12588447332382202	0.4865831732749939	0.6742554306983948
-0.062371682	-0.1607801	-0.40732494	0.21916589	0.096720174
1	5	1	5	FC_LAYER_SG
0.9883425235748291	-1.3790076971054077	-0.7154262065887451	1.0466824769973755	0.6912918090820312
-0.25618187
