5
5	2	5	2	FC_LAYER_SP
0.9755562543869019	1.5296579599380493	0.9457809925079346	1.3814504146575928	-1.9558582305908203	2.3598544597625732	0.9413356781005859	1.358834981918335	1.250792145729065	1.8188806772232056
-0.21268123	0.015055781	-0.39940938	-0.03652646	-0.55588114
10	5	10	5	FC_LAYER_SP
0.9441671371459961	1.2095918655395508	-1.6644809246063232	1.1992560625076294	1.4213885068893433	1.174681544303894	0.274495005607605	-1.4845365285873413	1.2148444652557373	1.1763509511947632	0.4855221211910248	1.0538344383239746	-0.5097951292991638	0.6852113008499146	0.5697213411331177	1.1077319383621216	1.0843236446380615	-1.1751768589019775	0.5893229842185974	1.2882061004638672	0.9450865387916565	0.13274677097797394	-1.3938462734222412	0.8322556018829346	1.0876668691635132	0.9364871382713318	0.9547824263572693	-1.3294869661331177	0.5379602313041687	1.1434037685394287	0.6682102680206299	0.2504507303237915	-1.211474895477295	0.3859351575374603	1.344433069229126	0.5979556441307068	1.0121252536773682	-1.2359784841537476	0.1900135725736618	1.2788499593734741	-0.10101376473903656	0.19308625161647797	-0.7903140783309937	-0.18525603413581848	1.4538394212722778	0.5075966715812683	-0.008655533194541931	-0.7911210656166077	0.45083701610565186	0.5127143263816833
-0.11696015	-0.06046546	-0.08874543	-0.09375111	0.08288293	0.0006051813	0.026759418	-0.36077052	-1.2799704	-0.5482053
10	10	10	10	FC_LAYER_SP
0.850162923336029	0.6114907264709473	0.38296860456466675	0.8822600841522217	0.5686541795730591	0.6662951707839966	1.2326442003250122	1.1536071300506592	1.6632697582244873	0.883245050907135	0.9450027346611023	0.6500266790390015	0.6139107942581177	1.1015340089797974	0.9055866599082947	0.7126539945602417	0.9351130127906799	0.7013579607009888	1.000483751296997	0.3591560125350952	0.7197361588478088	0.2588326036930084	0.32572805881500244	0.8686965703964233	1.0785988569259644	1.0973060131072998	0.6601214408874512	1.0824767351150513	0.954022228717804	1.0687029361724854	1.0439398288726807	0.591702938079834	0.576440155506134	0.7279425263404846	0.9154168963432312	0.9997255206108093	0.8867365121841431	0.80535489320755	0.9508569836616516	0.8116658329963684	0.7234086990356445	0.9472180008888245	0.425223708152771	0.13212105631828308	1.2798484563827515	0.9693264961242676	0.27075961232185364	1.4375852346420288	1.0904713869094849	0.371155321598053	-0.17495916783809662	0.15767228603363037	-0.4370718002319336	-0.5729290246963501	0.41154715418815613	-0.27212560176849365	0.43015074729919434	0.08961145579814911	0.48763713240623474	0.617486298084259	1.1622655391693115	1.0956087112426758	0.05583956465125084	0.2604260742664337	0.921197772026062	0.5227542519569397	0.8088722229003906	1.4959487915039062	0.9767274856567383	0.4142955243587494	0.5029556751251221	0.4934273064136505	0.5494306683540344	0.384915292263031	1.199885606765747	0.2196301817893982	0.5754435658454895	0.9774789214134216	1.1214244365692139	0.26048099994659424	0.5918761491775513	0.5387116074562073	0.6072005033493042	0.9781441688537598	0.7614238858222961	0.22347190976142883	1.3071582317352295	0.8580582737922668	1.3950401544570923	1.0146175622940063	1.2449909448623657	1.1538547277450562	0.3528580367565155	0.8408198356628418	0.7058369517326355	1.066447377204895	1.2373250722885132	0.93355393409729	0.7817394137382507	1.1664581298828125
-0.5004616	-0.31294215	-0.17116688	-0.36366925	-0.19945355	1.8171399	-0.4749398	-0.47885665	-0.20220076	-0.32839516
5	10	5	10	FC_LAYER_SP
1.1279072761535645	1.2892409563064575	0.8743811249732971	0.5808194279670715	1.1456106901168823	-0.4091976284980774	1.2018932104110718	0.45126909017562866	0.8706608414649963	0.504368007183075	-0.12015515565872192	0.32290253043174744	-0.43286919593811035	-0.5875898599624634	0.5648742318153381	1.2816977500915527	0.5532915592193604	0.2961888611316681	-0.4748241603374481	-0.1524122655391693	0.31811007857322693	1.2206250429153442	0.9872364401817322	0.8689868450164795	1.3359805345535278	-0.6506444215774536	0.5598774552345276	0.9042101502418518	1.031095266342163	0.9828329086303711	1.0592515468597412	1.2247753143310547	0.932854950428009	0.8530404567718506	1.1788207292556763	-0.8448225259780884	0.7879542112350464	0.9212134480476379	1.2145464420318604	1.077743649482727	-0.5162838697433472	-0.383529394865036	0.48587703704833984	-0.1391480714082718	0.24340243637561798	4.4781813621521	-0.6986730098724365	0.4238181710243225	0.4268680512905121	-0.09831804782152176
-0.17646757	0.5029257	-0.15810634	-0.22202876	3.1815717
1	5	1	5	FC_LAYER_SP
1.4320234060287476	-1.1171475648880005	1.7338937520980835	1.0197765827178955	-7.220165729522705
-0.09663626
